// #### Generated By: http://www.cufonfonts.com ####
/*!
 * The following copyright notice may not be removed under any circumstances.
 * 
 * Copyright:
 * © 1999 by s.a.x. Software GmbH, Karlsruhe, Germany
 * 
 * Description:
 * saxMono is a sample of a fine TrueType with high screen quality.
 * Its spacing (11 cpi@12 pt) is between the Courier and Letter Gothic.
 * 
 * s.a.x.: Our business is printing solutions for corporates. We cover letterheads,
 * faxes, invoices and everything, what was pre-printed in former times. Our
 * solutions ensure for our customers to have "always everywhere the right form".
 * 
 * One mayor basis for the "right" and corporate identity conforming forms is the
 * right font in a "as good as Arial" screen quality. So we are specialized in
 * generating high quality fonts, like this sample.
 * 
 * Manufacturer:
 * s.a.x. Software
 * 
 * Designer:
 * Robert Norton
 * 
 * Vendor URL:
 * http://www.saxsoft.de/typography/default.htm
 * 
 * License information:
 * http://www.saxsoft.de/typography/freelicense.htm
 */
Cufon.registerFont({"w":1123,"face":{"font-family":"saxMono","font-weight":400,"font-stretch":"normal","units-per-em":"2048","panose-1":"2 15 4 9 2 2 2 4 5 4","ascent":"1638","descent":"-410","x-height":"20","bbox":"-80 -1754.35 1203 555","underline-thickness":"100","underline-position":"-173","unicode-range":"U+0020-U+20AC"},"glyphs":{" ":{},"!":{"d":"563,-1393v64,0,110,40,104,118r-50,625v-3,42,-22,63,-57,63v-31,0,-49,-21,-53,-63r-56,-645v-3,-65,35,-98,112,-98xm437,-95v0,-73,52,-123,125,-123v73,0,121,54,121,127v0,79,-40,118,-121,118v-83,0,-125,-41,-125,-122"},"\"":{"d":"222,-1247v-12,-92,29,-146,121,-146v93,0,133,53,121,145r-62,488v-7,51,-27,77,-60,77v-35,0,-55,-27,-62,-82xm657,-1247v-12,-92,29,-146,121,-146v93,0,133,53,121,145r-62,488v-7,51,-27,77,-60,77v-35,0,-55,-27,-62,-82"},"#":{"d":"290,-457r-166,0v-46,0,-69,-21,-69,-64v0,-44,22,-66,66,-66r190,0r37,-205r-167,0v-39,0,-58,-22,-58,-65v0,-43,21,-65,62,-65r182,0r71,-411v7,-40,29,-60,68,-60v40,0,67,21,60,60r-220,1290v-7,47,-30,70,-71,70v-43,0,-68,-24,-60,-70xm753,-457r-74,414v-7,47,-30,70,-71,70v-42,0,-64,-24,-56,-70r217,-1290v7,-40,28,-60,63,-60v41,0,68,20,62,60r-65,411v87,7,238,-29,236,61v0,46,-27,69,-82,69r-174,0r-37,205v87,6,226,-28,226,65v0,99,-154,56,-245,65"},"$":{"d":"1026,-382v-1,240,-161,377,-383,409v-8,89,34,233,-65,233v-103,0,-64,-141,-71,-233v-129,-9,-411,-106,-411,-217v0,-28,29,-57,57,-56v7,0,53,24,137,71v84,47,156,71,217,71r0,-573v-124,-43,-210,-81,-257,-114v-84,-59,-126,-138,-126,-235v0,-213,128,-336,383,-367v5,-85,-27,-204,68,-204v95,0,63,119,68,204v140,6,356,103,356,231v0,37,-17,56,-52,56v-14,0,-55,-23,-122,-70v-71,-49,-132,-78,-182,-87r0,490v137,44,228,85,274,122v73,59,109,149,109,269xm643,-104v142,-16,247,-120,246,-275v0,-79,-23,-138,-69,-177v-27,-23,-86,-51,-177,-86r0,538xm507,-811r0,-452v-164,11,-246,87,-246,227v0,64,27,115,80,152v25,17,80,41,166,73"},"%":{"d":"861,-725v147,0,238,90,238,235r0,278v0,152,-79,228,-238,228v-147,1,-240,-81,-240,-228r0,-278v-1,-146,93,-235,240,-235xm856,-627v-80,0,-135,56,-135,137r0,278v-2,74,66,131,141,131v78,0,137,-53,137,-131r0,-278v2,-77,-65,-137,-143,-137xm262,-1393v147,0,238,90,238,235r0,278v0,152,-79,228,-238,228v-147,1,-240,-81,-240,-228r0,-278v-1,-146,93,-235,240,-235xm257,-1295v-80,0,-135,56,-135,137r0,278v-2,74,66,131,141,131v78,0,137,-53,137,-131r0,-278v2,-77,-65,-137,-143,-137xm991,-1393v33,0,49,17,49,50v0,19,-11,47,-34,82r-795,1239v-19,33,-43,49,-74,49v-66,-1,-59,-68,-28,-116r791,-1233v24,-47,54,-71,91,-71"},"&":{"d":"926,-774v81,-1,125,7,125,71v0,37,-23,57,-69,59v-58,3,-93,9,-104,20v-11,11,-40,105,-87,282v33,62,85,169,127,202v9,7,39,19,91,28v74,12,73,98,5,109v-9,2,-38,3,-87,3v-40,0,-77,-21,-112,-63v-6,-7,-31,-45,-75,-114v-76,133,-121,193,-303,197v-214,4,-355,-151,-355,-364v0,-95,29,-191,86,-287v37,-62,100,-141,188,-238v-44,-84,-124,-200,-124,-309v0,-143,81,-215,244,-215v156,0,234,70,234,211v0,59,-22,120,-66,183v-12,17,-55,68,-128,152r192,344v21,-75,54,-212,93,-244v22,-18,64,-27,125,-27xm211,-353v0,135,97,251,232,245v130,-5,170,-79,226,-193r-249,-448v-68,77,-115,137,-141,180v-45,73,-68,145,-68,216xm472,-1265v-58,0,-111,34,-110,89v0,66,62,158,92,213v42,-53,125,-134,126,-208v0,-63,-36,-94,-108,-94"},"'":{"d":"439,-1247v-12,-92,29,-146,121,-146v93,0,133,53,121,145r-62,488v-7,51,-27,77,-60,77v-35,0,-55,-27,-62,-82"},"(":{"d":"847,374v1,30,-28,58,-58,58v-49,0,-119,-57,-209,-172v-168,-213,-252,-472,-252,-776v0,-282,98,-534,294,-755v72,-81,128,-122,167,-122v28,0,59,26,58,53v0,21,-25,55,-75,103v-205,197,-307,440,-307,729v0,321,106,583,318,785v43,41,64,73,64,97"},")":{"d":"273,-1334v-1,-30,28,-59,58,-59v48,0,117,58,208,173v169,215,253,473,253,775v0,283,-98,535,-294,756v-72,81,-128,122,-167,122v-28,1,-59,-26,-58,-54v0,-20,25,-54,75,-102v205,-196,307,-439,307,-730v0,-321,-106,-582,-318,-785v-43,-41,-64,-73,-64,-96"},"*":{"d":"560,-865r-135,230v-19,33,-43,49,-70,49v-64,0,-65,-69,-40,-112r131,-224r-268,0v-51,0,-76,-22,-76,-65v0,-42,25,-63,76,-63r268,0v-98,-163,-147,-256,-147,-281v0,-70,88,-80,119,-28r142,242r137,-233v25,-60,126,-60,123,18v0,20,-50,114,-150,282r264,0v55,0,83,20,83,61v0,45,-28,67,-83,67r-264,0v41,68,150,222,150,283v0,35,-19,53,-57,53v-27,0,-49,-15,-66,-45"},"+":{"d":"1010,-524v0,39,-39,68,-77,67r-309,0r0,307v0,52,-21,78,-62,78v-45,0,-67,-25,-67,-76r0,-309r-308,0v-52,0,-78,-22,-78,-65v0,-43,25,-65,74,-65r312,0r0,-308v0,-52,21,-78,64,-78v43,0,65,25,65,74r0,312r308,0v52,0,78,21,78,63"},",":{"d":"396,151v0,-26,116,-102,103,-138v0,-13,-17,-32,-51,-55v-34,-23,-52,-48,-52,-74v-2,-61,56,-102,116,-102v83,0,130,63,130,145v0,115,-97,268,-203,265v-29,0,-43,-14,-43,-41"},"-":{"d":"402,-587r312,0v52,0,78,21,78,64v0,44,-26,66,-77,66r-309,0v-52,0,-78,-22,-78,-66v0,-43,25,-64,74,-64"},"\u2010":{"d":"402,-587r312,0v52,0,78,21,78,64v0,44,-26,66,-77,66r-309,0v-52,0,-78,-22,-78,-66v0,-43,25,-64,74,-64"},".":{"d":"562,-219v81,0,121,41,121,123v0,82,-40,123,-121,123v-83,0,-125,-41,-125,-123v0,-82,42,-123,125,-123"},"\/":{"d":"939,-1393v74,1,65,66,34,119r-720,1248v-18,31,-41,46,-68,46v-72,-1,-71,-56,-40,-110r722,-1248v21,-37,45,-55,72,-55"},"0":{"d":"563,27v-262,0,-426,-158,-426,-420r0,-580v-2,-248,170,-420,426,-420v257,0,421,172,421,420r0,580v1,271,-149,420,-421,420xm274,-393v-1,182,108,289,290,289v189,0,283,-96,283,-289r0,-580v0,-173,-113,-288,-294,-288v-186,0,-279,96,-279,288r0,580"},"1":{"d":"519,-132r0,-1103r-198,0v-50,0,-75,-22,-75,-65v0,-44,25,-66,75,-66r266,0v45,0,68,22,68,66r0,1168r210,0v51,0,77,23,77,70v0,41,-26,62,-77,62r-597,0v-51,0,-77,-22,-77,-66v0,-44,26,-66,77,-66r251,0"},"2":{"d":"580,-1393v220,0,404,130,404,341v0,93,-47,196,-140,308r-510,612r554,0v64,0,96,22,96,67v0,43,-26,65,-78,65r-695,0v-83,2,-89,-66,-46,-118r590,-713v61,-74,92,-143,92,-208v0,-228,-363,-292,-488,-135v-23,29,-52,82,-85,162v-23,58,-49,87,-77,87v-40,0,-60,-24,-60,-71v0,-54,18,-113,53,-177v81,-147,211,-220,390,-220"},"3":{"d":"667,-756v-52,-10,-201,67,-236,68v-58,2,-54,-81,-23,-118r349,-428r-520,0v-58,0,-87,-22,-87,-67v0,-43,29,-64,87,-64r641,0v81,-5,96,58,59,104r-311,380v204,-36,344,100,344,291v0,169,-87,317,-261,443v-159,116,-327,174,-502,174v-65,0,-98,-20,-98,-59v0,-40,27,-60,82,-60v234,-1,397,-100,519,-224v83,-85,124,-173,124,-262v0,-94,-73,-181,-167,-178"},"4":{"d":"642,-259r-457,0v-90,-8,-65,-61,-39,-141r295,-901v21,-63,22,-88,75,-92v61,-5,70,49,52,105r-283,897r357,0r0,-555v0,-51,23,-77,69,-77v45,0,67,26,67,77r0,555v87,6,219,-28,219,66v0,94,-133,60,-219,66r0,209v0,51,-23,77,-68,77v-45,0,-68,-26,-68,-77r0,-209"},"5":{"d":"942,-1302v0,37,-37,67,-74,67r-481,0r-15,359v87,-39,163,-59,227,-59v211,0,371,175,371,388v0,181,-87,326,-262,434v-150,93,-321,140,-513,140v-48,0,-72,-20,-72,-59v0,-39,29,-62,88,-67v160,-15,282,-44,365,-87v171,-88,257,-208,257,-360v0,-142,-95,-264,-233,-261v-65,-12,-255,88,-302,88v-36,0,-53,-26,-51,-77r16,-449v3,-79,22,-121,91,-121r514,0v49,0,74,21,74,64"},"6":{"d":"568,27v-277,0,-431,-196,-431,-480v0,-302,126,-560,379,-774v131,-111,228,-166,293,-166v60,0,68,79,25,106v-3,2,-20,13,-53,32v-267,158,-428,359,-483,602v74,-84,172,-126,293,-126v220,0,393,181,393,400v0,229,-187,406,-416,406xm847,-377v0,-161,-118,-269,-279,-269v-168,0,-295,100,-295,263v0,163,125,279,288,279v162,0,286,-111,286,-273"},"7":{"d":"841,-1235r-633,0v-57,0,-85,-22,-85,-67v0,-43,28,-64,85,-64r712,0v52,0,78,18,78,55v0,15,-10,48,-30,99r-460,1170v-18,46,-43,69,-76,69v-73,0,-65,-65,-38,-132"},"8":{"d":"569,27v-242,0,-432,-171,-432,-410v0,-171,80,-293,239,-364v-123,-61,-185,-154,-185,-280v0,-206,171,-366,376,-366v204,0,362,152,362,356v0,120,-57,216,-172,288v151,71,227,190,227,358v0,249,-166,418,-415,418xm328,-1021v0,131,106,217,240,217v136,0,224,-86,224,-222v0,-134,-94,-235,-228,-235v-135,0,-236,105,-236,240xm847,-384v0,-168,-115,-298,-280,-298v-172,0,-293,120,-293,292v0,171,137,304,309,304v164,0,264,-129,264,-298"},"9":{"d":"553,-1393v273,0,434,197,431,477v-4,345,-169,619,-377,793v-119,99,-200,150,-247,150v-35,0,-53,-18,-53,-55v0,-29,21,-57,63,-84v243,-159,396,-359,458,-600v-93,83,-189,125,-289,125v-225,0,-402,-174,-402,-399v0,-230,187,-407,416,-407xm274,-988v0,161,118,269,279,269v167,0,294,-101,294,-263v0,-163,-125,-279,-288,-279v-163,0,-285,112,-285,273"},":":{"d":"562,-219v81,0,121,41,121,123v0,82,-40,123,-121,123v-83,0,-125,-41,-125,-123v0,-82,42,-123,125,-123xm562,-1024v81,0,121,41,121,123v0,82,-40,123,-121,123v-83,0,-125,-41,-125,-123v0,-82,42,-123,125,-123"},";":{"d":"396,151v0,-26,116,-102,103,-138v0,-13,-17,-32,-51,-55v-34,-23,-52,-48,-52,-74v-2,-61,56,-102,116,-102v83,0,130,63,130,145v0,115,-97,268,-203,265v-29,0,-43,-14,-43,-41xm523,-1024v81,0,121,41,121,123v0,82,-40,123,-121,123v-83,0,-125,-41,-125,-123v0,-82,42,-123,125,-123"},"<":{"d":"268,-522r700,335v59,17,61,116,-6,115v-16,0,-43,-9,-81,-28r-703,-348v-94,-47,-91,-106,5,-154r703,-347v33,-16,57,-24,72,-24v37,0,55,19,55,56v0,28,-16,49,-47,64"},"=":{"d":"1010,-729v0,39,-39,68,-77,67r-746,0v-52,0,-78,-22,-78,-65v0,-43,25,-65,74,-65r749,0v52,0,78,21,78,63xm1010,-326v0,39,-39,68,-77,67r-746,0v-52,0,-78,-22,-78,-65v0,-43,25,-65,74,-65r749,0v52,0,78,21,78,63"},">":{"d":"154,-857v-62,-20,-51,-114,12,-116v12,0,37,9,75,28r703,348v96,46,89,109,-5,155r-703,347v-31,15,-55,23,-72,23v-37,0,-55,-19,-55,-56v0,-28,16,-49,47,-64r698,-330"},"?":{"d":"554,-1393v231,0,452,141,443,361v-5,129,-71,168,-180,235v-61,37,-102,69,-125,96v-31,15,-41,210,-119,210v-43,0,-65,-27,-65,-82v0,-83,22,-162,90,-211r167,-121v60,-44,90,-91,90,-141v-1,-187,-318,-276,-491,-176v-73,42,-104,97,-118,184v-5,32,-27,47,-61,47v-41,0,-62,-22,-62,-65v0,-59,26,-120,77,-185v81,-101,199,-152,354,-152xm437,-95v0,-73,52,-123,125,-123v73,0,121,54,121,127v0,79,-40,118,-121,118v-83,0,-125,-41,-125,-122"},"@":{"d":"574,-1393v357,0,505,156,505,516r0,502v0,150,-65,225,-195,225v-59,0,-110,-29,-153,-88v-68,59,-141,88,-219,88v-154,2,-253,-100,-253,-254v0,-165,104,-279,269,-279v76,0,132,18,168,54r0,-97v0,-121,-27,-169,-139,-169v-93,0,-105,24,-146,107v-31,62,-116,39,-116,-24v0,-122,124,-216,270,-211v195,7,259,92,259,296r0,381v-1,32,28,68,60,68v45,0,67,-32,67,-95r0,-500v-1,-272,-121,-392,-393,-392v-259,0,-389,139,-389,416r0,548v0,271,148,406,443,406v95,0,181,-18,258,-53v47,-21,75,-32,85,-32v35,0,52,20,52,59v0,97,-285,153,-406,153v-345,0,-560,-187,-560,-527r0,-557v2,-370,163,-541,533,-541xm555,-555v-96,-2,-168,59,-168,152v0,83,47,125,141,125v77,0,133,-27,168,-81r0,-146v-39,-33,-86,-50,-141,-50"},"A":{"d":"828,-396r-542,0r-77,383v-5,27,-25,40,-59,40v-47,0,-69,-19,-67,-56v2,-41,213,-1073,228,-1136v35,-151,115,-228,250,-228v135,0,218,76,250,228r124,586v70,333,105,513,105,539v0,45,-24,68,-71,68v-37,0,-59,-16,-66,-49xm309,-528r493,0r-111,-563v-22,-113,-68,-170,-137,-170v-100,0,-117,73,-138,180"},"B":{"d":"837,-715v143,47,214,154,214,323v0,261,-130,392,-389,392r-480,0v-49,0,-73,-22,-73,-67r0,-1227v0,-49,24,-73,73,-73r423,0v270,0,405,114,405,341v0,143,-58,247,-173,311xm915,-385v1,-157,-95,-257,-251,-257r-418,0r0,510r404,0v181,-1,264,-71,265,-253xm874,-1014v0,-140,-95,-221,-237,-221r-391,0r0,462r416,0v131,2,212,-106,212,-241"},"C":{"d":"592,27v-286,2,-470,-144,-469,-422r0,-560v0,-292,155,-438,465,-438v251,0,437,132,436,359v0,55,-22,83,-67,83v-32,0,-57,-26,-69,-78v-10,-44,-27,-86,-50,-127v-40,-69,-125,-105,-260,-105v-230,0,-317,103,-318,342r0,467v0,244,94,348,326,348v174,0,275,-61,302,-184v10,-45,15,-69,16,-70v10,-25,28,-38,53,-38v45,0,67,28,67,83v0,110,-45,201,-139,266v-73,51,-172,74,-293,74"},"D":{"d":"110,-70r0,-1214v0,-55,23,-82,68,-82r357,0v161,0,286,38,368,122v84,86,121,201,121,338r0,447v0,306,-167,459,-500,459r-346,0v-45,0,-68,-23,-68,-70xm524,-132v242,0,363,-98,363,-329r0,-445v0,-219,-121,-329,-363,-329r-278,0r0,1103r278,0"},"E":{"d":"109,-1288v-1,-45,40,-79,85,-78r720,0v64,0,96,20,96,61v0,47,-32,70,-96,70r-668,0r0,462r478,0v63,0,95,20,95,61v0,47,-32,70,-95,70r-478,0r0,510r669,0v63,0,95,21,95,62v0,47,-32,70,-95,70r-721,0v-57,0,-85,-28,-85,-83r0,-1205"},"F":{"d":"246,-1235r0,462r491,0v55,0,82,21,82,64v0,45,-27,67,-82,67r-491,0r0,583v0,57,-23,86,-68,86v-46,0,-69,-29,-69,-86r0,-1227v0,-53,25,-80,74,-80r771,0v37,0,56,21,56,64v0,45,-30,67,-91,67r-673,0"},"G":{"d":"570,-104v192,0,322,-101,321,-289r0,-71r-184,0v-55,0,-82,-22,-82,-65v0,-45,27,-67,82,-67r249,0v45,0,68,27,68,82r0,469v0,48,-21,72,-62,72v-88,0,-60,-85,-64,-158v-85,105,-200,158,-347,158v-263,0,-455,-163,-455,-420r0,-561v0,-293,148,-439,443,-439v213,0,359,76,436,227v24,47,36,92,36,135v0,49,-23,74,-70,74v-29,0,-53,-26,-71,-79v-55,-164,-124,-225,-320,-225v-211,0,-317,102,-317,307r0,561v-1,190,139,289,337,289"},"H":{"d":"248,-773r628,0r0,-521v0,-66,23,-99,69,-99v45,0,67,33,67,99r0,1250v0,47,-23,71,-68,71v-45,0,-68,-24,-68,-71r0,-598r-628,0r0,591v0,52,-23,78,-68,78v-46,0,-69,-26,-69,-78r0,-1225v0,-78,23,-117,69,-117v45,0,68,37,68,111r0,509"},"I":{"d":"493,-132r0,-1102r-242,0v-57,0,-86,-22,-86,-66v0,-44,26,-66,77,-66r635,0v53,0,80,21,80,63v0,46,-27,69,-80,69r-248,0r0,1102r237,0v61,0,91,22,91,66v0,44,-30,66,-91,66r-626,0v-50,0,-75,-21,-75,-63v0,-46,25,-69,75,-69r253,0"},"J":{"d":"540,-104v188,2,321,-106,321,-290r0,-840r-421,0v-47,0,-71,-22,-71,-65v0,-45,24,-67,71,-67r493,0v43,0,64,28,64,84r0,888v3,264,-186,421,-456,421v-159,0,-281,-56,-366,-169v-53,-70,-79,-132,-79,-185v0,-80,106,-107,123,-39v37,151,143,261,321,262"},"K":{"d":"1050,-82v35,42,4,111,-49,109v-23,0,-43,-11,-60,-33r-484,-636r-211,256r0,337v0,51,-23,76,-70,76v-45,0,-67,-25,-67,-76r0,-1275v0,-46,23,-69,69,-69v45,0,68,25,68,74r0,737r641,-775v33,-52,125,-50,124,21v0,19,-7,38,-22,56r-436,538"},"L":{"d":"195,0v-39,-1,-71,-25,-71,-69r0,-1231v0,-62,23,-93,68,-93v45,0,68,33,68,99r0,1162r719,0v57,0,86,22,86,67v0,43,-29,65,-86,65r-784,0"},"M":{"d":"572,-556r324,-779v16,-39,42,-58,77,-58v43,0,65,30,65,90r0,1256v0,49,-22,74,-66,74v-47,0,-71,-31,-71,-92r0,-986r-268,630v-31,81,-99,76,-133,0r-281,-630r0,1004v0,49,-23,74,-68,74v-46,0,-69,-28,-69,-83r0,-1246v-9,-106,108,-118,143,-38"},"N":{"d":"888,-259r0,-1040v0,-63,22,-94,66,-94v47,0,70,31,70,94r0,1255v7,88,-106,87,-141,28r-650,-1090r0,1056v0,51,-24,77,-72,77v-43,0,-65,-26,-65,-77r0,-1249v-6,-112,92,-118,138,-42"},"O":{"d":"562,27v-277,0,-466,-148,-466,-418r0,-566v-1,-286,184,-436,478,-436v282,0,450,157,450,436r0,566v2,270,-185,418,-462,418xm233,-401v-1,189,133,297,328,297v218,0,327,-99,327,-297r0,-545v0,-210,-113,-315,-339,-315v-194,0,-316,114,-316,309r0,551"},"P":{"d":"1065,-995v-3,289,-132,408,-421,408r-398,0r0,537v0,51,-23,77,-69,77v-45,0,-68,-26,-68,-77r0,-1251v0,-43,24,-65,71,-65r554,0v203,-3,333,162,331,371xm637,-719v200,-1,291,-73,291,-269v0,-165,-73,-247,-218,-247r-464,0r0,516r391,0"},"Q":{"d":"963,226v-110,-3,-246,-126,-305,-209v-318,52,-562,-110,-562,-413r0,-562v-3,-274,185,-435,463,-435v282,0,465,158,465,435r0,562v-4,200,-84,288,-223,375v30,31,87,79,179,130v59,33,58,119,-17,117xm546,-542v66,0,71,38,71,118v0,99,34,200,101,303v113,-64,170,-155,170,-273r0,-564v0,-202,-109,-303,-326,-303v-201,0,-330,108,-329,303r0,562v0,195,111,292,334,292v-63,-115,-94,-223,-94,-323v0,-77,24,-115,73,-115"},"R":{"d":"1037,-978v-3,235,-75,302,-268,363r292,524v31,48,26,119,-44,119v-29,0,-54,-17,-73,-51r-316,-564r-382,0r0,537v0,52,-23,78,-68,78v-46,0,-69,-26,-69,-78r0,-1242v1,-57,13,-73,70,-74r503,0v228,-2,358,154,355,388xm901,-977v0,-149,-71,-259,-212,-258r-443,0r0,516r376,0v186,0,279,-86,279,-258"},"S":{"d":"553,-104v187,0,356,-95,356,-269v0,-125,-77,-197,-224,-244r-290,-92v-203,-54,-305,-160,-305,-318v-1,-245,189,-366,449,-366v201,0,345,49,432,148v23,26,34,50,34,71v0,37,-20,56,-59,56v-55,0,-125,-69,-183,-95v-196,-88,-537,-61,-537,182v0,94,71,162,212,206r384,120v149,65,223,181,223,346v0,128,-51,231,-158,302v-87,59,-204,85,-345,85v-156,0,-467,-74,-467,-200v0,-38,19,-57,58,-57v19,0,62,19,130,56v84,46,181,69,290,69"},"T":{"d":"492,-1235r-366,0v-47,0,-71,-21,-71,-63v0,-45,27,-68,81,-68r846,0v55,0,83,22,83,65v0,44,-28,66,-83,66r-354,0r0,1185v0,52,-22,78,-67,78v-46,0,-69,-26,-69,-78r0,-1185"},"U":{"d":"574,27v-274,0,-472,-158,-472,-424r0,-908v0,-59,22,-88,66,-88v47,0,71,29,71,88r0,906v-1,192,140,295,339,295v201,0,302,-98,302,-295r0,-904v0,-60,22,-90,67,-90v47,0,70,30,70,90r0,906v1,274,-166,424,-443,424"},"V":{"d":"555,-232r352,-1105v12,-37,34,-56,65,-56v62,0,75,46,58,97r-411,1279v-12,59,-112,57,-130,0r-414,-1279v-17,-50,-4,-97,57,-97v30,0,51,19,63,56","w":1109},"W":{"d":"313,-96r133,-677v17,-85,55,-128,114,-128v61,0,102,46,123,137r149,668r93,-1225v3,-48,25,-72,64,-72v54,0,65,38,61,93r-86,1181v-7,97,-51,146,-131,146v-97,0,-116,-49,-138,-144r-135,-600r-111,592v-19,101,-65,152,-139,152v-79,0,-123,-51,-132,-152r-110,-1209v0,-39,19,-59,56,-59v41,0,63,24,68,73"},"X":{"d":"955,-1402v33,-1,70,26,69,59v0,17,-8,39,-25,65r-364,575r395,612v37,49,30,120,-42,118v-23,0,-43,-14,-61,-41r-371,-570r-356,570v-27,60,-136,55,-132,-20v0,-17,7,-36,20,-57r389,-612r-365,-585v-35,-47,-15,-108,50,-105v23,0,41,11,54,32r340,539r331,-524v23,-37,46,-56,68,-56"},"Y":{"d":"492,-587r-379,-693v-31,-48,-22,-113,44,-113v27,0,48,15,65,46r338,623r335,-618v19,-34,41,-51,67,-51v74,0,72,56,43,109r-377,705r0,531v0,50,-23,75,-68,75v-45,0,-68,-25,-68,-75r0,-539"},"Z":{"d":"1051,-64v0,56,-27,64,-92,64r-803,0v-117,0,-98,-77,-51,-146r743,-1089r-661,0v-61,0,-92,-22,-92,-65v0,-44,31,-66,92,-66r748,0v106,-1,103,65,58,132r-749,1102r715,0v61,0,92,23,92,68"},"[":{"d":"458,286r322,0v45,0,67,21,67,64v0,41,-25,62,-76,62r-372,0v-47,0,-71,-21,-71,-62r0,-1651v0,-43,24,-65,71,-65r374,0v49,0,74,22,74,65v0,44,-25,66,-74,66r-315,0r0,1521"},"\\":{"d":"137,-1293v-26,-41,-17,-100,43,-100v30,0,52,12,65,35r739,1281v29,45,13,98,-51,98v-25,0,-43,-10,-55,-31"},"]":{"d":"662,-1241r-322,0v-45,0,-67,-20,-67,-60v0,-43,25,-65,76,-65r372,0v47,0,71,22,71,65r0,1639v0,49,-24,74,-71,74r-374,0v-49,0,-74,-22,-74,-66v0,-44,25,-66,74,-66r315,0r0,-1521"},"^":{"d":"560,-1234r-335,564v-25,59,-118,58,-116,-15v0,-17,9,-41,28,-72r348,-566v61,-95,94,-93,154,4r348,567v16,27,24,49,24,66v0,39,-19,58,-58,58v-25,0,-46,-15,-63,-44"},"_":{"d":"-6,302r1132,0v51,0,77,21,77,64v0,44,-25,66,-76,66r-1129,0v-52,0,-78,-22,-78,-66v0,-43,25,-64,74,-64"},"`":{"d":"375,-1367v0,-106,108,-103,164,-42r169,185v24,26,36,46,36,59v0,32,-16,48,-48,48v-15,0,-39,-11,-70,-32r-185,-125v-44,-30,-66,-61,-66,-93"},"a":{"d":"549,-1023v267,0,407,83,407,333r0,457v10,96,10,106,96,137v23,8,34,30,34,62v0,60,-57,62,-116,40v-51,-19,-81,-27,-88,-32v-27,-15,-43,-40,-49,-75v-124,86,-152,117,-324,121v-215,5,-386,-101,-386,-304v0,-202,184,-322,398,-322v88,0,190,21,305,62r0,-158v3,-136,-135,-193,-287,-193v-167,0,-259,46,-276,139v-8,42,-13,65,-14,69v-9,21,-28,32,-55,32v-47,0,-71,-25,-71,-74v0,-67,26,-129,79,-186v66,-72,182,-108,347,-108xm514,-108v149,-4,208,-49,312,-130r0,-191v-101,-33,-195,-49,-284,-49v-193,0,-289,62,-289,187v-1,126,122,187,261,183"},"b":{"d":"606,20v-190,-1,-239,-31,-353,-124v-10,64,-16,124,-73,124v-38,0,-57,-23,-57,-70r0,-1312v0,-61,23,-92,68,-92v41,0,62,31,62,92r0,468v96,-86,212,-129,348,-129v225,0,409,121,409,338r0,375v0,221,-135,331,-404,330xm881,-674v1,-151,-137,-221,-300,-221v-112,0,-221,42,-328,127r0,510v105,101,221,151,346,151v188,1,282,-68,282,-205r0,-362"},"c":{"d":"253,-320v8,175,133,216,348,213v141,-2,221,-36,295,-113v26,-27,46,-40,61,-40v36,0,54,19,54,56v0,38,-22,78,-66,120v-73,69,-195,104,-364,104v-305,0,-458,-113,-458,-340r0,-364v0,-226,150,-339,449,-339v221,0,442,109,438,310v0,39,-19,58,-56,58v-26,0,-50,-20,-70,-62v-61,-132,-126,-178,-302,-178v-219,0,-329,73,-329,220r0,355"},"d":{"d":"936,20v-50,0,-59,-63,-62,-120v-118,83,-170,117,-344,120v-241,4,-421,-108,-421,-335r0,-378v-2,-216,178,-333,408,-330v177,2,241,34,350,121r0,-460v0,-61,21,-92,62,-92v45,0,67,31,67,92r0,1313v0,46,-20,69,-60,69xm543,-110v162,-3,226,-50,324,-141r0,-517v-116,-82,-170,-123,-331,-127v-163,-4,-297,70,-297,216r0,353v-1,150,140,219,304,216"},"e":{"d":"109,-695v10,-223,206,-328,460,-328v294,0,441,146,441,438v0,71,-27,107,-81,107r-690,0r0,142v0,153,109,231,326,228v173,-2,205,-13,328,-99v44,-31,67,-54,78,-54v36,0,54,19,54,56v0,39,-27,79,-80,122v-86,69,-215,103,-386,103v-300,0,-450,-118,-450,-356r0,-359xm239,-606r641,0v0,-193,-108,-289,-325,-289v-80,0,-154,13,-215,53v-93,61,-109,114,-101,236"},"f":{"d":"674,-1454v185,0,337,84,337,248v0,101,-107,110,-134,34v-43,-123,-59,-154,-204,-154v-135,0,-202,67,-202,201r0,122r263,0v57,0,85,21,85,64v0,43,-28,64,-85,64r-263,0r0,819v0,51,-22,76,-66,76v-43,0,-64,-25,-64,-76r0,-819v-86,-6,-218,28,-218,-65v0,-90,134,-57,218,-63r0,-125v0,-217,111,-326,333,-326"},"g":{"d":"546,432v-136,0,-380,-77,-380,-187v0,-39,19,-59,56,-59v6,0,44,17,110,60v138,90,432,74,498,-50v20,-38,37,-131,37,-286v-95,74,-211,110,-347,110v-274,0,-411,-110,-411,-335r0,-371v0,-224,143,-336,428,-336v181,0,216,30,332,117v15,-78,39,-117,72,-117v37,0,55,28,55,85r0,983v0,257,-150,386,-450,386xm526,-108v169,-2,230,-37,341,-119r0,-523v-72,-97,-176,-145,-313,-145v-210,0,-315,68,-315,203r0,372v0,142,96,214,287,212"},"h":{"d":"253,-920v127,-76,171,-103,354,-103v269,0,403,113,403,338r0,616v0,59,-21,88,-64,89v-43,1,-65,-29,-65,-89r0,-616v0,-140,-100,-210,-301,-210v-115,0,-224,43,-327,129r0,697v0,59,-21,88,-64,89v-44,1,-66,-29,-66,-89r0,-1297v0,-59,22,-88,65,-88v43,0,65,29,65,88r0,446"},"i":{"d":"430,-1331v0,-68,58,-123,126,-123v64,0,119,59,119,123v0,66,-56,123,-122,123v-68,0,-123,-55,-123,-123xm519,-128r0,-747r-217,0v-65,0,-97,-22,-97,-67v0,-41,32,-61,97,-61r257,0v60,0,90,27,90,82r0,793r244,0v61,0,91,22,91,65v0,42,-28,63,-84,63r-679,0v-56,0,-84,-21,-84,-63v0,-43,28,-65,84,-65r298,0"},"j":{"d":"477,305v165,0,219,-67,219,-237r0,-943r-241,0v-58,0,-87,-21,-87,-64v0,-43,29,-64,87,-64r285,0v57,0,86,28,86,84r0,987v0,249,-107,356,-352,364v-162,6,-407,-157,-406,-299v0,-62,22,-93,67,-92v14,0,34,23,53,73v47,122,164,191,289,191xm550,-1331v0,-68,58,-123,126,-123v64,0,119,59,119,123v0,66,-56,123,-122,123v-68,0,-123,-55,-123,-123"},"k":{"d":"253,-452r623,-526v30,-30,61,-45,92,-45v66,0,75,92,21,117r-404,339r406,462v22,21,33,41,33,59v0,89,-91,77,-124,39r-414,-484r-233,196r0,249v0,45,-21,67,-64,66v-44,-1,-66,-23,-66,-66r0,-1340v0,-45,22,-68,65,-68v43,0,65,23,65,68r0,934"},"l":{"d":"519,-128r0,-1176r-198,0v-50,0,-75,-21,-75,-63v0,-45,25,-67,75,-67r263,0v43,0,65,23,65,68r0,1238r260,0v50,0,75,22,75,65v0,42,-25,63,-75,63r-689,0v-55,0,-83,-22,-83,-65v0,-42,28,-63,83,-63r299,0"},"m":{"d":"149,-1023v41,0,60,66,63,108v62,-73,85,-108,191,-108v71,0,132,37,185,111v71,-77,98,-111,224,-111v155,0,233,75,233,224r0,730v0,59,-22,89,-67,89v-42,0,-63,-30,-63,-89r0,-684v0,-95,-38,-142,-114,-142v-58,0,-113,34,-166,103r0,722v0,60,-22,90,-66,90v-42,0,-63,-30,-63,-90r0,-670v0,-103,-41,-155,-124,-155v-52,0,-104,34,-156,103r0,722v0,60,-22,90,-67,90v-42,0,-63,-30,-63,-90r0,-888v0,-43,18,-65,53,-65"},"n":{"d":"185,-1023v47,0,59,79,68,123v125,-85,169,-123,353,-123v269,0,404,112,404,336r0,617v0,60,-22,90,-66,90v-42,0,-63,-30,-63,-90r0,-613v-4,-164,-101,-212,-281,-212v-175,0,-220,53,-347,142r0,683v0,60,-21,90,-64,90v-44,0,-66,-30,-66,-90r0,-876v0,-51,21,-77,62,-77"},"o":{"d":"109,-317r0,-368v0,-225,150,-338,451,-338v300,0,450,113,450,338r0,368v0,225,-148,337,-444,337v-305,0,-457,-112,-457,-337xm880,-317r0,-368v0,-140,-109,-210,-327,-210v-209,0,-314,70,-314,210r0,368v0,140,108,209,323,209v212,0,318,-69,318,-209"},"p":{"d":"175,-1023v43,-1,62,71,78,108v101,-72,218,-108,349,-108v272,0,408,113,408,339r0,371v0,212,-167,333,-395,333v-139,0,-259,-37,-362,-110r0,424v0,65,-21,98,-64,98v-44,0,-66,-33,-66,-98r0,-1261v0,-64,17,-96,52,-96xm584,-896v-179,4,-223,44,-331,145r0,517v93,84,206,126,340,126v155,0,287,-68,288,-205r0,-374v1,-151,-129,-213,-297,-209"},"q":{"d":"109,-685v0,-228,181,-338,427,-338v135,0,246,38,331,115v17,-77,41,-115,72,-115v38,0,57,26,57,78r0,1279v0,65,-21,98,-64,98v-43,0,-65,-33,-65,-98r0,-423v-112,82,-157,109,-337,109v-281,0,-421,-113,-421,-338r0,-367xm238,-318v-1,141,152,211,309,211v118,0,225,-42,320,-126r0,-518v-82,-96,-192,-144,-331,-144v-157,0,-297,68,-297,207"},"r":{"d":"759,-894v-123,0,-165,70,-247,167r0,599r243,0v52,0,78,20,78,61v0,45,-26,67,-78,67r-568,0v-52,0,-78,-21,-78,-63v0,-43,26,-65,78,-65r195,0r0,-747r-195,0v-52,0,-78,-21,-78,-64v0,-43,26,-64,78,-64r258,0v45,1,67,38,67,111v80,-87,165,-131,256,-131v146,0,245,105,243,250v0,51,-22,77,-65,77v-26,0,-44,-17,-55,-51v-19,-61,-29,-93,-31,-96v-19,-34,-53,-51,-101,-51"},"s":{"d":"563,-107v143,0,312,-65,311,-184v0,-77,-63,-126,-190,-147r-351,-60v-127,-40,-190,-116,-190,-228v0,-198,131,-297,394,-297v150,0,399,69,399,193v0,35,-18,53,-53,53v-11,0,-53,-20,-126,-59v-73,-39,-147,-59,-221,-59v-133,0,-263,52,-263,166v0,69,66,114,197,135r265,42v179,28,268,114,268,257v0,205,-191,316,-416,316v-147,0,-265,-32,-356,-96v-77,-54,-115,-98,-115,-131v0,-36,18,-54,54,-54v48,0,169,104,208,113v59,27,121,40,185,40"},"t":{"d":"380,-875r-184,0v-49,0,-73,-21,-73,-64v0,-43,24,-64,73,-64r184,0r0,-350v0,-67,22,-101,65,-101v43,0,65,34,65,101r0,350r345,0v49,0,74,21,74,62v0,44,-25,66,-74,66r-345,0r0,573v0,130,61,195,182,195v64,0,125,-20,184,-59v59,-39,93,-59,103,-59v39,0,59,19,59,57v0,46,-47,95,-145,143v-65,32,-138,45,-215,45v-199,0,-298,-107,-298,-322r0,-573"},"u":{"d":"940,20v-46,0,-60,-85,-66,-134v-124,89,-189,130,-370,134v-237,5,-395,-118,-395,-338r0,-632v0,-49,21,-73,64,-73v44,0,66,24,66,73r0,620v4,170,104,225,291,224v121,0,234,-47,337,-142r0,-702v0,-49,22,-73,65,-73v43,0,64,24,64,73r0,896v0,49,-19,74,-56,74"},"v":{"d":"115,-913v-30,-53,-5,-110,49,-110v31,0,54,19,69,56r326,779r326,-785v14,-33,36,-50,66,-50v70,0,75,53,51,111r-363,868v-32,85,-123,84,-158,0"},"w":{"d":"317,-69r147,-746v10,-48,42,-72,95,-72v51,0,82,24,93,72r182,746r89,-883v5,-47,28,-71,69,-71v40,0,60,23,60,69v0,9,-3,44,-10,105r-97,802v-12,45,-52,67,-120,67v-59,0,-95,-20,-105,-62r-164,-714r-132,709v-7,45,-41,67,-102,67v-71,0,-112,-26,-120,-80r-120,-787v-9,-65,-14,-101,-14,-107v0,-46,20,-69,60,-69v37,0,59,22,65,66"},"x":{"d":"863,-992v34,-55,117,-30,120,28v0,13,-7,29,-20,46r-322,416r334,406v38,39,28,116,-37,116v-27,0,-55,-14,-79,-44r-301,-374r-287,368v-27,33,-56,50,-87,50v-77,1,-70,-71,-32,-118r322,-404r-318,-407v-35,-41,-23,-114,44,-114v21,0,39,11,56,32r302,384"},"y":{"d":"171,272v23,0,81,32,113,32v45,0,80,-30,104,-91r99,-249r-363,-868v-28,-57,-19,-120,51,-119v27,0,47,16,61,49r327,767r304,-737v19,-53,46,-79,81,-79v73,0,69,59,45,117r-495,1190v-41,99,-112,148,-212,148v-82,0,-178,-30,-177,-99v0,-41,21,-61,62,-61"},"z":{"d":"760,-875r-504,0v-53,0,-79,-22,-79,-66v0,-41,26,-62,79,-62r649,0v75,-4,76,63,41,106r-630,769r610,0v56,0,84,21,84,64v0,43,-28,64,-84,64r-745,0v-87,0,-84,-70,-39,-125"},"{":{"d":"471,-1087v7,-190,41,-278,188,-278v76,0,174,-17,174,64v0,78,-87,64,-161,64v-24,0,-40,9,-49,27v-15,16,-22,71,-22,166r0,373v0,117,-59,181,-177,194v118,13,177,78,177,195r0,391v4,115,0,166,71,172v74,7,161,-16,161,65v0,88,-113,65,-194,65v-52,0,-92,-19,-123,-55v-29,-33,-45,-101,-45,-208r0,-431v0,-56,-16,-93,-48,-112v-5,-3,-35,-10,-88,-19v-32,-5,-48,-26,-48,-62v0,-37,16,-58,48,-64v55,-10,84,-16,88,-19v32,-19,48,-62,48,-131r0,-397"},"|":{"d":"629,-1391r0,1764v0,39,-24,59,-71,59v-44,0,-66,-20,-66,-59r0,-1764v0,-42,23,-63,69,-63v45,0,68,21,68,63"},"}":{"d":"652,-1087v-7,-190,-41,-278,-188,-278v-76,0,-174,-17,-174,64v0,78,87,64,161,64v24,0,40,9,49,27v15,16,22,71,22,166r0,373v0,117,59,181,177,194v-118,13,-177,78,-177,195r0,391v-4,115,0,166,-71,172v-74,7,-161,-16,-161,65v0,88,113,65,194,65v52,0,92,-19,123,-55v29,-33,45,-101,45,-208r0,-431v0,-56,16,-93,48,-112v5,-3,35,-10,88,-19v32,-5,48,-26,48,-62v0,-37,-16,-58,-48,-64v-55,-10,-84,-16,-88,-19v-32,-19,-48,-62,-48,-131r0,-397"},"~":{"d":"369,-1023v53,-13,293,164,347,150v35,0,69,-25,104,-75v35,-50,60,-75,75,-75v32,0,48,17,48,50v0,69,-158,243,-230,232v-37,17,-299,-159,-326,-150v-36,-14,-130,162,-163,150v-31,0,-47,-17,-47,-50v0,-49,142,-244,192,-232"},"\u00c7":{"d":"260,-452v1,237,93,348,326,348v174,0,278,-61,302,-184v14,-71,34,-108,69,-108v45,0,67,28,67,83v0,120,-47,218,-150,277v-88,51,-201,66,-328,62r-18,105v139,-62,258,65,258,201v0,136,-97,223,-233,223v-119,0,-178,-25,-178,-74v0,-97,124,-28,178,-28v69,0,103,-40,103,-121v0,-71,-27,-107,-81,-107v-29,0,-91,45,-116,45v-30,0,-45,-18,-45,-53v0,-11,10,-79,31,-204v-215,-45,-322,-181,-322,-408r0,-560v0,-292,155,-438,465,-438v119,0,220,26,299,83v93,67,137,161,137,276v0,55,-22,83,-67,83v-33,0,-56,-24,-68,-72v-37,-144,-104,-242,-311,-238v-230,4,-317,107,-318,342r0,467"},"\u00d6":{"d":"273,-1600v0,-68,59,-123,126,-123v68,0,120,58,120,125v0,68,-54,121,-122,121v-69,0,-124,-54,-124,-123xm601,-1600v0,-68,59,-123,126,-123v67,0,119,58,119,125v0,68,-53,121,-121,121v-69,0,-124,-54,-124,-123xm562,27v-277,0,-466,-148,-466,-418r0,-566v-1,-286,184,-436,478,-436v282,0,450,157,450,436r0,566v2,270,-185,418,-462,418xm233,-401v-1,189,133,297,328,297v218,0,327,-99,327,-297r0,-545v0,-210,-113,-315,-339,-315v-194,0,-316,114,-316,309r0,551"},"\u00dc":{"d":"273,-1600v0,-68,59,-123,126,-123v68,0,120,58,120,125v0,68,-54,121,-122,121v-69,0,-124,-54,-124,-123xm601,-1600v0,-68,59,-123,126,-123v67,0,119,58,119,125v0,68,-53,121,-121,121v-69,0,-124,-54,-124,-123xm574,27v-274,0,-472,-158,-472,-424r0,-908v0,-59,22,-88,66,-88v47,0,71,29,71,88r0,906v-1,192,140,295,339,295v201,0,302,-98,302,-295r0,-904v0,-60,22,-90,67,-90v47,0,70,30,70,90r0,906v1,274,-166,424,-443,424"},"\u00e7":{"d":"253,-356v6,200,122,251,348,249v142,-1,220,-36,295,-113v26,-27,46,-40,61,-40v36,0,54,19,54,56v0,39,-23,78,-66,120v-81,79,-238,114,-419,103r-18,112v138,-62,258,65,258,201v0,136,-97,223,-233,223v-119,0,-178,-25,-178,-74v0,-97,124,-28,178,-28v69,0,103,-40,103,-121v0,-71,-27,-107,-81,-107v-18,-5,-111,46,-125,46v-25,0,-37,-13,-37,-40v0,-8,12,-82,35,-223v-203,-35,-305,-156,-305,-364r0,-309v0,-239,150,-358,449,-358v221,0,442,109,438,310v0,39,-19,58,-56,58v-26,0,-50,-20,-70,-62v-61,-132,-126,-178,-302,-178v-219,0,-329,84,-329,253r0,286"},"\u00f6":{"d":"273,-1270v0,-68,59,-123,126,-123v68,0,120,58,120,125v0,68,-54,121,-122,121v-69,0,-124,-54,-124,-123xm601,-1270v0,-68,59,-123,126,-123v67,0,119,58,119,125v0,68,-53,121,-121,121v-69,0,-124,-54,-124,-123xm109,-317r0,-368v0,-225,150,-338,451,-338v300,0,450,113,450,338r0,368v0,225,-148,337,-444,337v-305,0,-457,-112,-457,-337xm880,-317r0,-368v0,-140,-109,-210,-327,-210v-209,0,-314,70,-314,210r0,368v0,140,108,209,323,209v212,0,318,-69,318,-209"},"\u00fc":{"d":"273,-1270v0,-68,59,-123,126,-123v68,0,120,58,120,125v0,68,-54,121,-122,121v-69,0,-124,-54,-124,-123xm601,-1270v0,-68,59,-123,126,-123v67,0,119,58,119,125v0,68,-53,121,-121,121v-69,0,-124,-54,-124,-123xm940,20v-46,0,-60,-85,-66,-134v-124,89,-189,130,-370,134v-237,5,-395,-118,-395,-338r0,-632v0,-49,21,-73,64,-73v44,0,66,24,66,73r0,620v4,170,104,225,291,224v121,0,234,-47,337,-142r0,-702v0,-49,22,-73,65,-73v43,0,64,24,64,73r0,896v0,49,-19,74,-56,74"},"\u0131":{"d":"519,-128r0,-747r-217,0v-65,0,-97,-22,-97,-67v0,-41,32,-61,97,-61r257,0v60,0,90,27,90,82r0,793r244,0v61,0,91,22,91,65v0,42,-28,63,-84,63r-679,0v-56,0,-84,-21,-84,-63v0,-43,28,-65,84,-65r298,0"},"\u20a3":{"d":"237,-287v-76,0,-164,14,-164,-67v0,-78,90,-64,164,-64r0,-867v0,-53,25,-80,74,-80r668,0v57,0,86,21,86,64v0,45,-30,67,-91,67r-601,0r0,461r424,0v55,0,82,21,82,64v0,45,-27,67,-82,67r-424,0r0,224r192,0v54,0,81,21,81,64v0,45,-27,67,-81,67r-192,0r0,228v0,57,-22,86,-67,86v-46,0,-69,-29,-69,-86r0,-228","w":1120},"\u011e":{"d":"572,-1447v-133,0,-299,-98,-299,-223v0,-96,88,-112,122,-38v46,98,68,132,177,132v43,0,78,-15,103,-46v3,-4,24,-31,54,-86v16,-29,33,-46,56,-46v41,0,61,26,61,79v0,128,-140,228,-274,228xm570,-104v192,0,322,-101,321,-289r0,-71r-184,0v-55,0,-82,-22,-82,-65v0,-45,27,-67,82,-67r249,0v45,0,68,27,68,82r0,469v0,48,-21,72,-62,72v-88,0,-60,-85,-64,-158v-85,105,-200,158,-347,158v-263,0,-455,-163,-455,-420r0,-561v0,-293,148,-439,443,-439v213,0,359,76,436,227v24,47,36,92,36,135v0,49,-23,74,-70,74v-29,0,-53,-26,-71,-79v-55,-164,-124,-225,-320,-225v-211,0,-317,102,-317,307r0,561v-1,190,139,289,337,289"},"\u011f":{"d":"549,-1147v-133,0,-299,-98,-299,-223v0,-96,88,-112,122,-38v46,98,68,132,177,132v43,0,78,-15,103,-46v3,-4,24,-31,54,-86v16,-29,33,-46,56,-46v41,0,61,26,61,79v0,128,-140,228,-274,228xm546,432v-136,0,-380,-77,-380,-187v0,-39,19,-59,56,-59v6,0,44,17,110,60v138,90,432,74,498,-50v20,-38,37,-131,37,-286v-95,74,-211,110,-347,110v-274,0,-411,-110,-411,-335r0,-371v0,-224,143,-336,428,-336v181,0,216,30,332,117v15,-78,39,-117,72,-117v37,0,55,28,55,85r0,983v0,257,-150,386,-450,386xm526,-108v169,-2,230,-37,341,-119r0,-523v-72,-97,-176,-145,-313,-145v-210,0,-315,68,-315,203r0,372v0,142,96,214,287,212"},"\u0130":{"d":"430,-1601v0,-68,58,-123,126,-123v64,0,119,59,119,123v0,66,-56,123,-122,123v-68,0,-123,-55,-123,-123xm493,-132r0,-1102r-242,0v-57,0,-86,-22,-86,-66v0,-44,26,-66,77,-66r635,0v53,0,80,21,80,63v0,46,-27,69,-80,69r-248,0r0,1102r237,0v61,0,91,22,91,66v0,44,-30,66,-91,66r-626,0v-50,0,-75,-21,-75,-63v0,-46,25,-69,75,-69r253,0"},"\u015e":{"d":"553,-104v187,0,356,-95,356,-269v0,-125,-77,-197,-224,-244r-290,-92v-203,-54,-305,-160,-305,-318v-1,-245,189,-366,449,-366v201,0,345,49,432,148v23,26,34,50,34,71v0,37,-20,56,-59,56v-55,0,-125,-69,-183,-95v-196,-88,-537,-61,-537,182v0,94,71,162,212,206r384,120v149,65,223,181,223,346v0,128,-51,231,-158,302v-87,59,-204,85,-345,85v-156,0,-467,-74,-467,-200v0,-38,19,-57,58,-57v19,0,62,19,130,56v84,46,181,69,290,69xm446,485v0,-26,116,-102,103,-138v0,-13,-17,-32,-51,-55v-34,-23,-52,-48,-52,-74v-2,-61,56,-102,116,-102v83,0,130,63,130,145v0,115,-97,268,-203,265v-29,0,-43,-14,-43,-41"},"\u015f":{"d":"563,-107v143,0,312,-65,311,-184v0,-77,-63,-126,-190,-147r-351,-60v-127,-40,-190,-116,-190,-228v0,-198,131,-297,394,-297v150,0,399,69,399,193v0,35,-18,53,-53,53v-11,0,-53,-20,-126,-59v-73,-39,-147,-59,-221,-59v-133,0,-263,52,-263,166v0,69,66,114,197,135r265,42v179,28,268,114,268,257v0,205,-191,316,-416,316v-147,0,-265,-32,-356,-96v-77,-54,-115,-98,-115,-131v0,-36,18,-54,54,-54v48,0,169,104,208,113v59,27,121,40,185,40xm499,485v0,-26,116,-102,103,-138v0,-13,-17,-32,-51,-55v-34,-23,-52,-48,-52,-74v-2,-61,56,-102,116,-102v83,0,130,63,130,145v0,115,-97,268,-203,265v-29,0,-43,-14,-43,-41"},"\u20a7":{"d":"533,-1027v0,233,-137,359,-369,358r0,619v0,51,-21,77,-62,77v-41,0,-61,-26,-61,-77r0,-1251v-6,-93,113,-62,194,-65v187,-6,298,146,298,339xm164,-787v163,6,241,-74,242,-244v0,-164,-80,-229,-242,-217r0,461xm1092,-175v0,115,-91,202,-206,202v-52,0,-96,-14,-133,-42v-38,28,-84,42,-138,42v-103,0,-154,-71,-154,-213r0,-316v-44,0,-67,0,-70,-1v-27,-5,-40,-20,-40,-46v0,-25,13,-40,40,-45v3,-1,26,-1,70,-1v6,-75,-25,-219,47,-219v72,0,40,145,47,219v71,0,99,-1,86,-2v37,4,55,20,55,47v0,29,-18,46,-54,50v11,-1,-18,-2,-87,-2r0,316v-1,82,9,124,75,124v23,0,45,-8,65,-23v-21,-30,-18,-72,20,-73v9,0,31,15,59,52v66,85,233,61,233,-59v0,-40,-27,-71,-83,-90r-153,-51v-55,-28,-83,-72,-83,-131v0,-110,91,-183,204,-183v79,0,180,50,180,122v0,27,-11,40,-32,40v-8,0,-28,-12,-52,-41v-59,-70,-215,-48,-215,57v0,37,28,65,83,83r153,50v55,28,83,73,83,134"},"\u20a4":{"d":"232,-1131v-2,-172,145,-262,328,-262v151,0,257,42,316,127v44,63,66,122,66,179v0,43,-22,64,-67,64v-27,0,-49,-21,-64,-62v-47,-130,-91,-176,-245,-176v-133,0,-199,43,-199,128v0,22,13,88,40,198r237,0v53,0,79,23,79,68v0,43,-26,64,-79,64r-206,0r32,140r175,0v53,0,79,23,79,68v0,90,-132,59,-217,64r60,217r125,127v65,57,116,86,153,86v41,0,69,-31,85,-93v16,-62,41,-93,73,-93v41,0,62,22,62,66v3,129,-83,248,-208,248v-96,0,-192,-51,-288,-152v-48,97,-88,149,-212,152v-138,3,-234,-88,-234,-226v0,-143,135,-266,283,-204r-32,-128r-200,0v-52,0,-78,-22,-78,-65v0,-100,149,-59,240,-67r-33,-140v-83,-4,-207,24,-207,-65v0,-83,98,-66,176,-67v-27,-105,-40,-170,-40,-196xm352,-101v54,0,97,-39,97,-93v0,-51,-53,-93,-104,-93v-51,0,-92,42,-92,93v0,62,33,93,99,93"},"\u20ac":{"d":"178,-486v-70,3,-137,1,-137,-66v0,-66,67,-70,137,-66r0,-110v-70,3,-137,1,-137,-66v0,-66,67,-70,137,-66r0,-165v0,-245,153,-368,458,-368v295,0,443,113,443,338v0,55,-22,82,-67,82v-35,0,-56,-20,-65,-61v0,-151,-105,-227,-316,-227v-211,0,-317,79,-317,236r0,165r276,0v53,0,79,22,79,67v0,43,-26,65,-79,65r-276,0r0,110r276,0v53,0,79,22,79,67v0,43,-26,65,-79,65r-276,0r0,145v0,158,109,237,327,237v203,0,305,-74,305,-221v11,-45,32,-68,65,-68v45,0,68,28,68,83v0,225,-144,337,-433,337v-312,0,-468,-123,-468,-368r0,-145"},"\u00a0":{}}});
